svm_type c_svc
kernel_type rbf
gamma 0.5
nr_class 2
total_sv 10
rho 0.7263236965174736
label 3 1
nr_sv 5 5
SV
10.0 1:0.722 2:0.15 
10.0 1:0.168 2:0.496 
10.0 1:0.406 2:0.346 
7.316966583624787 1:0.458 2:0.284 
10.0 1:0.32 2:0.366 
-10.0 1:0.636 2:0.408 
-8.947090184833753 1:0.862 2:0.318 
-10.0 1:0.566 2:0.42 
-8.369876398791034 1:0.218 2:0.676 
-10.0 1:0.21 2:0.674 
